<?xml version="1.0"?>
<opencv_storage>
<cascade>
  <stageType>BOOST</stageType>
  <featureType>HAAR</featureType>
  <height>20</height>
  <width>20</width>
  <stageParams>
    <boostType>GAB</boostType>
    <minHitRate>9.9500000476837158e-01</minHitRate>
    <maxFalseAlarm>5.0000000000000000e-01</maxFalseAlarm>
    <weightTrimRate>9.4999999999999996e-01</weightTrimRate>
    <maxDepth>1</maxDepth>
    <maxWeakCount>100</maxWeakCount></stageParams>
  <featureParams>
    <maxCatCount>0</maxCatCount>
    <featSize>1</featSize>
    <mode>BASIC</mode></featureParams>
  <stageNum>11</stageNum>
  <stages>
    <!-- stage 0 -->
    <_>
      <maxWeakCount>3</maxWeakCount>
      <stageThreshold>-7.0084297657012939e-01</stageThreshold>
      <weakClassifiers>
        <_>
          <internalNodes>
            0 -1 27 1.0207210481166840e-01</internalNodes>
          <leafValues>
            -7.2250771522521973e-01 8.8375711441040039e-01</leafValues></_>
        <_>
          <internalNodes>
            0 -1 42 4.9512600526213646e-03</internalNodes>
          <leafValues>
            -7.2781699895858765e-01 7.3380130529403687e-01</leafValues></_>
        <_>
          <internalNodes>
            0 -1 5 2.5621918961405754e-02</internalNodes>
          <leafValues>
            -5.5239623785018921e-01 7.4948173761367798e-01</leafValues></_></weakClassifiers></_>
    <!-- stage 1 -->
    <_>
      <maxWeakCount>4</maxWeakCount>
      <stageThreshold>-1.2120634317398071e+00</stageThreshold>
      <weakClassifiers>
        <_>
          <internalNodes>
            0 -1 35 1.9175507128238678e-02</internalNodes>
          <leafValues>
            -8.7973272800445557e-01 7.2210323810577393e-01</leafValues></_>
        <_>
          <internalNodes>
            0 -1 38 1.4438241720199585e-02</internalNodes>
          <leafValues>
            -8.2455652952194214e-01 5.1384830474853516e-01</leafValues></_>
        <_>
          <internalNodes>
            0 -1 1 4.6396262943744659e-02</internalNodes>
          <leafValues>
            -6.0378110408782959e-01 6.9501519203186035e-01</leafValues></_>
        <_>
          <internalNodes>
            0 -1 66 -6.0658082365989685e-02</internalNodes>
          <leafValues>
            6.4891046285629272e-01 -5.0582909584045410e-01</leafValues></_></weakClassifiers></_>
    <!-- stage 2 -->
    <_>
      <maxWeakCount>5</maxWeakCount>
      <stageThreshold>-1.1111836433410645e+00</stageThreshold>
      <weakClassifiers>
        <_>
          <internalNodes>
            0 -1 43 1.0125022381544113e-02</internalNodes>
          <leafValues>
            -7.8930306434631348e-01 6.5430957078933716e-01</leafValues></_>
        <_>
          <internalNodes>
            0 -1 19 -9.1265849769115448e-03</internalNodes>
          <leafValues>
            6.1438339948654175e-01 -6.4534860849380493e-01</leafValues></_>
        <_>
          <internalNodes>
            0 -1 28 1.4720919728279114e-01</internalNodes>
          <leafValues>
            -5.8131521940231323e-01 6.0213160514831543e-01</leafValues></_>
        <_>
          <internalNodes>
            0 -1 15 -1.0498706251382828e-02</internalNodes>
          <leafValues>
            3.7292864918708801e-01 -7.5315904617309570e-01</leafValues></_>
        <_>
          <internalNodes>
            0 -1 64 -1.2789034517481923e-03</internalNodes>
          <leafValues>
            -9.0619397163391113e-01 2.1432976424694061e-01</leafValues></_></weakClassifiers></_>
    <!-- stage 3 -->
    <_>
      <maxWeakCount>5</maxWeakCount>
      <stageThreshold>-1.1122965812683105e+00</stageThreshold>
      <weakClassifiers>
        <_>
          <internalNodes>
            0 -1 24 1.2497541308403015e-01</internalNodes>
          <leafValues>
            -4.7894102334976196e-01 6.8055558204650879e-01</leafValues></_>
        <_>
          <internalNodes>
            0 -1 13 -3.5110006574541330e-03</internalNodes>
          <leafValues>
            4.4160881638526917e-01 -7.1786898374557495e-01</leafValues></_>
        <_>
          <internalNodes>
            0 -1 70 -1.1013284092769027e-03</internalNodes>
          <leafValues>
            -8.9267265796661377e-01 2.8247943520545959e-01</leafValues></_>
        <_>
          <internalNodes>
            0 -1 65 6.8490269768517464e-05</internalNodes>
          <leafValues>
            3.2120040059089661e-01 -8.5259991884231567e-01</leafValues></_>
        <_>
          <internalNodes>
            0 -1 26 2.6928242295980453e-02</internalNodes>
          <leafValues>
            -5.0486260652542114e-01 5.5564874410629272e-01</leafValues></_></weakClassifiers></_>
    <!-- stage 4 -->
    <_>
      <maxWeakCount>6</maxWeakCount>
      <stageThreshold>-8.4828764200210571e-01</stageThreshold>
      <weakClassifiers>
        <_>
          <internalNodes>
            0 -1 48 7.7814022079110146e-03</internalNodes>
          <leafValues>
            -5.2678573131561279e-01 6.7202413082122803e-01</leafValues></_>
        <_>
          <internalNodes>
            0 -1 4 3.5305842757225037e-02</internalNodes>
          <leafValues>
            -5.2059155702590942e-01 6.0324686765670776e-01</leafValues></_>
        <_>
          <internalNodes>
            0 -1 49 4.1017187759280205e-03</internalNodes>
          <leafValues>
            -6.1262851953506470e-01 3.9018321037292480e-01</leafValues></_>
        <_>
          <internalNodes>
            0 -1 23 -2.6666610501706600e-03</internalNodes>
          <leafValues>
            3.6049512028694153e-01 -6.4361101388931274e-01</leafValues></_>
        <_>
          <internalNodes>
            0 -1 57 -1.4439487131312490e-04</internalNodes>
          <leafValues>
            -8.6022061109542847e-01 2.5216764211654663e-01</leafValues></_>
        <_>
          <internalNodes>
            0 -1 53 -1.7003411194309592e-03</internalNodes>
          <leafValues>
            -9.4594335556030273e-01 2.0034980773925781e-01</leafValues></_></weakClassifiers></_>
    <!-- stage 5 -->
    <_>
      <maxWeakCount>6</maxWeakCount>
      <stageThreshold>-9.8294490575790405e-01</stageThreshold>
      <weakClassifiers>
        <_>
          <internalNodes>
            0 -1 55 -2.2035247820895165e-04</internalNodes>
          <leafValues>
            5.5223882198333740e-01 -8.6046510934829712e-01</leafValues></_>
        <_>
          <internalNodes>
            0 -1 3 2.9424130916595459e-02</internalNodes>
          <leafValues>
            -4.6095362305641174e-01 6.1959511041641235e-01</leafValues></_>
        <_>
          <internalNodes>
            0 -1 51 8.5723918164148927e-04</internalNodes>
          <leafValues>
            -7.7014040946960449e-01 4.1113033890724182e-01</leafValues></_>
        <_>
          <internalNodes>
            0 -1 53 1.0191956971539184e-04</internalNodes>
          <leafValues>
            2.7014029026031494e-01 -7.0788007974624634e-01</leafValues></_>
        <_>
          <internalNodes>
            0 -1 8 -1.4614446088671684e-02</internalNodes>
          <leafValues>
            2.0978122949600220e-01 -7.7600485086441040e-01</leafValues></_>
        <_>
          <internalNodes>
            0 -1 67 -1.1421687668189406e-03</internalNodes>
          <leafValues>
            -8.6432814598083496e-01 2.0177489519119263e-01</leafValues></_></weakClassifiers></_>
    <!-- stage 6 -->
    <_>
      <maxWeakCount>8</maxWeakCount>
      <stageThreshold>-8.8079673051834106e-01</stageThreshold>
      <weakClassifiers>
        <_>
          <internalNodes>
            0 -1 69 4.7721056034788489e-04</internalNodes>
          <leafValues>
            -6.4716804027557373e-01 5.6941652297973633e-01</leafValues></_>
        <_>
          <internalNodes>
            0 -1 33 2.0687647629529238e-03</internalNodes>
          <leafValues>
            -4.5276093482971191e-01 5.3125470876693726e-01</leafValues></_>
        <_>
          <internalNodes>
            0 -1 70 4.9638439668342471e-04</internalNodes>
          <leafValues>
            2.3359566926956177e-01 -8.8999491930007935e-01</leafValues></_>
        <_>
          <internalNodes>
            0 -1 14 -3.2354062423110008e-03</internalNodes>
          <leafValues>
            2.1377171576023102e-01 -7.8922516107559204e-01</leafValues></_>
        <_>
          <internalNodes>
            0 -1 40 4.4919555075466633e-03</internalNodes>
          <leafValues>
            -7.0635527372360229e-01 2.4876609444618225e-01</leafValues></_>
        <_>
          <internalNodes>
            0 -1 36 7.4784336611628532e-03</internalNodes>
          <leafValues>
            -3.4917053580284119e-01 5.7260477542877197e-01</leafValues></_>
        <_>
          <internalNodes>
            0 -1 25 -6.6464263945817947e-03</internalNodes>
          <leafValues>
            5.6402397155761719e-01 -2.9768836498260498e-01</leafValues></_>
        <_>
          <internalNodes>
            0 -1 46 8.8562117889523506e-04</internalNodes>
          <leafValues>
            2.1954695880413055e-01 -7.8484863042831421e-01</leafValues></_></weakClassifiers></_>
    <!-- stage 7 -->
    <_>
      <maxWeakCount>8</maxWeakCount>
      <stageThreshold>-1.1967701911926270e+00</stageThreshold>
      <weakClassifiers>
        <_>
          <internalNodes>
            0 -1 22 -8.3825516048818827e-04</internalNodes>
          <leafValues>
            5.6585592031478882e-01 -5.1677852869033813e-01</leafValues></_>
        <_>
          <internalNodes>
            0 -1 50 4.7417599707841873e-03</internalNodes>
          <leafValues>
            -5.1249825954437256e-01 4.5068234205245972e-01</leafValues></_>
        <_>
          <internalNodes>
            0 -1 29 1.0571213066577911e-01</internalNodes>
          <leafValues>
            -6.7480367422103882e-01 2.9939904808998108e-01</leafValues></_>
        <_>
          <internalNodes>
            0 -1 63 2.5286123855039477e-04</internalNodes>
          <leafValues>
            2.3125198483467102e-01 -7.6077866554260254e-01</leafValues></_>
        <_>
          <internalNodes>
            0 -1 2 5.4901428520679474e-02</internalNodes>
          <leafValues>
            -4.0979525446891785e-01 4.2285966873168945e-01</leafValues></_>
        <_>
          <internalNodes>
            0 -1 6 -9.9463919177651405e-03</internalNodes>
          <leafValues>
            -8.7716990709304810e-01 1.9478209316730499e-01</leafValues></_>
        <_>
          <internalNodes>
            0 -1 56 9.8720530513674021e-04</internalNodes>
          <leafValues>
            1.2998265027999878e-01 -9.2734313011169434e-01</leafValues></_>
        <_>
          <internalNodes>
            0 -1 57 1.4045595889911056e-04</internalNodes>
          <leafValues>
            -7.0371770858764648e-01 2.0470631122589111e-01</leafValues></_></weakClassifiers></_>
    <!-- stage 8 -->
    <_>
      <maxWeakCount>10</maxWeakCount>
      <stageThreshold>-1.2343140840530396e+00</stageThreshold>
      <weakClassifiers>
        <_>
          <internalNodes>
            0 -1 44 4.3268459849059582e-03</internalNodes>
          <leafValues>
            -5.5851066112518311e-01 5.6083220243453979e-01</leafValues></_>
        <_>
          <internalNodes>
            0 -1 21 1.1961214244365692e-02</internalNodes>
          <leafValues>
            -4.5602294802665710e-01 4.4634276628494263e-01</leafValues></_>
        <_>
          <internalNodes>
            0 -1 16 -2.8186687268316746e-04</internalNodes>
          <leafValues>
            -6.6747635602951050e-01 3.2309603691101074e-01</leafValues></_>
        <_>
          <internalNodes>
            0 -1 16 4.2123097227886319e-04</internalNodes>
          <leafValues>
            1.7565858364105225e-01 -8.2395356893539429e-01</leafValues></_>
        <_>
          <internalNodes>
            0 -1 11 -1.8141854554414749e-02</internalNodes>
          <leafValues>
            2.1064990758895874e-01 -7.1288800239562988e-01</leafValues></_>
        <_>
          <internalNodes>
            0 -1 45 -1.4394417405128479e-01</internalNodes>
          <leafValues>
            3.5252633690834045e-01 -4.6921816468238831e-01</leafValues></_>
        <_>
          <internalNodes>
            0 -1 42 4.5393477194011211e-03</internalNodes>
          <leafValues>
            -6.9302248954772949e-01 2.2085636854171753e-01</leafValues></_>
        <_>
          <internalNodes>
            0 -1 47 9.3107606517150998e-04</internalNodes>
          <leafValues>
            -5.1882839202880859e-01 2.7207383513450623e-01</leafValues></_>
        <_>
          <internalNodes>
            0 -1 62 6.4191775163635612e-04</internalNodes>
          <leafValues>
            1.5677750110626221e-01 -8.2362818717956543e-01</leafValues></_>
        <_>
          <internalNodes>
            0 -1 32 -4.9868309870362282e-03</internalNodes>
          <leafValues>
            4.8990729451179504e-01 -3.0586734414100647e-01</leafValues></_></weakClassifiers></_>
    <!-- stage 9 -->
    <_>
      <maxWeakCount>11</maxWeakCount>
      <stageThreshold>-9.5906192064285278e-01</stageThreshold>
      <weakClassifiers>
        <_>
          <internalNodes>
            0 -1 10 5.6350266095250845e-04</internalNodes>
          <leafValues>
            -4.8398268222808838e-01 5.4812288284301758e-01</leafValues></_>
        <_>
          <internalNodes>
            0 -1 30 7.1739279665052891e-03</internalNodes>
          <leafValues>
            -3.2890745997428894e-01 5.1630294322967529e-01</leafValues></_>
        <_>
          <internalNodes>
            0 -1 61 -3.5047242417931557e-03</internalNodes>
          <leafValues>
            -7.9139381647109985e-01 2.2829313576221466e-01</leafValues></_>
        <_>
          <internalNodes>
            0 -1 68 3.4162972588092089e-04</internalNodes>
          <leafValues>
            1.6172452270984650e-01 -8.9347225427627563e-01</leafValues></_>
        <_>
          <internalNodes>
            0 -1 59 -7.0797814987599850e-04</internalNodes>
          <leafValues>
            -6.5431725978851318e-01 2.2406354546546936e-01</leafValues></_>
        <_>
          <internalNodes>
            0 -1 7 -8.2174753770232201e-03</internalNodes>
          <leafValues>
            1.5053506195545197e-01 -8.4226596355438232e-01</leafValues></_>
        <_>
          <internalNodes>
            0 -1 41 2.7642110362648964e-03</internalNodes>
          <leafValues>
            -6.0045963525772095e-01 2.3945476114749908e-01</leafValues></_>
        <_>
          <internalNodes>
            0 -1 39 2.6475791819393635e-03</internalNodes>
          <leafValues>
            -6.7531484365463257e-01 1.9487781822681427e-01</leafValues></_>
        <_>
          <internalNodes>
            0 -1 37 4.2597642168402672e-03</internalNodes>
          <leafValues>
            -8.0196094512939453e-01 1.4577387273311615e-01</leafValues></_>
        <_>
          <internalNodes>
            0 -1 9 8.6594313383102417e-02</internalNodes>
          <leafValues>
            1.7234662175178528e-01 -7.5722283124923706e-01</leafValues></_>
        <_>
          <internalNodes>
            0 -1 12 1.4681750908493996e-03</internalNodes>
          <leafValues>
            1.5045590698719025e-01 -7.8244787454605103e-01</leafValues></_></weakClassifiers></_>
    <!-- stage 10 -->
    <_>
      <maxWeakCount>11</maxWeakCount>
      <stageThreshold>-1.0998817682266235e+00</stageThreshold>
      <weakClassifiers>
        <_>
          <internalNodes>
            0 -1 17 1.6843910561874509e-03</internalNodes>
          <leafValues>
            -7.1834993362426758e-01 4.8586755990982056e-01</leafValues></_>
        <_>
          <internalNodes>
            0 -1 20 -2.4375371634960175e-02</internalNodes>
          <leafValues>
            -6.8635863065719604e-01 2.7271384000778198e-01</leafValues></_>
        <_>
          <internalNodes>
            0 -1 54 -1.0062601359095424e-04</internalNodes>
          <leafValues>
            1.8106484413146973e-01 -8.0398106575012207e-01</leafValues></_>
        <_>
          <internalNodes>
            0 -1 16 -4.0875549893826246e-04</internalNodes>
          <leafValues>
            -7.2300416231155396e-01 2.1385903656482697e-01</leafValues></_>
        <_>
          <internalNodes>
            0 -1 0 3.6617487668991089e-02</internalNodes>
          <leafValues>
            -2.9973933100700378e-01 5.7789564132690430e-01</leafValues></_>
        <_>
          <internalNodes>
            0 -1 31 8.4092825651168823e-02</internalNodes>
          <leafValues>
            -1.9543074071407318e-01 7.1674162149429321e-01</leafValues></_>
        <_>
          <internalNodes>
            0 -1 60 3.8708196952939034e-03</internalNodes>
          <leafValues>
            -6.8490558862686157e-01 2.1077996492385864e-01</leafValues></_>
        <_>
          <internalNodes>
            0 -1 18 -2.6638302952051163e-03</internalNodes>
          <leafValues>
            2.1195372939109802e-01 -5.7875949144363403e-01</leafValues></_>
        <_>
          <internalNodes>
            0 -1 52 1.0452428250573575e-04</internalNodes>
          <leafValues>
            2.4455933272838593e-01 -5.2388298511505127e-01</leafValues></_>
        <_>
          <internalNodes>
            0 -1 34 1.7940048128366470e-02</internalNodes>
          <leafValues>
            -7.4917083978652954e-01 1.1975836753845215e-01</leafValues></_>
        <_>
          <internalNodes>
            0 -1 58 1.2389885960146785e-03</internalNodes>
          <leafValues>
            1.6735394299030304e-01 -6.7886519432067871e-01</leafValues></_></weakClassifiers></_></stages>
  <features>
    <_>
      <rects>
        <_>
          0 2 6 6 -1.</_>
        <_>
          2 2 2 6 3.</_></rects>
      <tilted>0</tilted></_>
    <_>
      <rects>
        <_>
          0 7 9 5 -1.</_>
        <_>
          3 7 3 5 3.</_></rects>
      <tilted>0</tilted></_>
    <_>
      <rects>
        <_>
          0 8 6 7 -1.</_>
        <_>
          3 8 3 7 2.</_></rects>
      <tilted>0</tilted></_>
    <_>
      <rects>
        <_>
          1 7 4 7 -1.</_>
        <_>
          3 7 2 7 2.</_></rects>
      <tilted>0</tilted></_>
    <_>
      <rects>
        <_>
          2 7 6 7 -1.</_>
        <_>
          4 7 2 7 3.</_></rects>
      <tilted>0</tilted></_>
    <_>
      <rects>
        <_>
          2 8 6 6 -1.</_>
        <_>
          4 8 2 6 3.</_></rects>
      <tilted>0</tilted></_>
    <_>
      <rects>
        <_>
          3 7 12 4 -1.</_>
        <_>
          9 7 6 4 2.</_></rects>
      <tilted>0</tilted></_>
    <_>
      <rects>
        <_>
          3 8 8 4 -1.</_>
        <_>
          7 8 4 4 2.</_></rects>
      <tilted>0</tilted></_>
    <_>
      <rects>
        <_>
          3 8 8 5 -1.</_>
        <_>
          7 8 4 5 2.</_></rects>
      <tilted>0</tilted></_>
    <_>
      <rects>
        <_>
          3 9 16 5 -1.</_>
        <_>
          11 9 8 5 2.</_></rects>
      <tilted>0</tilted></_>
    <_>
      <rects>
        <_>
          3 10 2 6 -1.</_>
        <_>
          4 10 1 6 2.</_></rects>
      <tilted>0</tilted></_>
    <_>
      <rects>
        <_>
          4 7 6 6 -1.</_>
        <_>
          7 7 3 6 2.</_></rects>
      <tilted>0</tilted></_>
    <_>
      <rects>
        <_>
          4 8 1 6 -1.</_>
        <_>
          4 11 1 3 2.</_></rects>
      <tilted>0</tilted></_>
    <_>
      <rects>
        <_>
          4 8 1 10 -1.</_>
        <_>
          4 13 1 5 2.</_></rects>
      <tilted>0</tilted></_>
    <_>
      <rects>
        <_>
          4 8 4 3 -1.</_>
        <_>
          6 8 2 3 2.</_></rects>
      <tilted>0</tilted></_>
    <_>
      <rects>
        <_>
          4 8 6 5 -1.</_>
        <_>
          7 8 3 5 2.</_></rects>
      <tilted>0</tilted></_>
    <_>
      <rects>
        <_>
          4 9 2 1 -1.</_>
        <_>
          5 9 1 1 2.</_></rects>
      <tilted>0</tilted></_>
    <_>
      <rects>
        <_>
          4 9 12 4 -1.</_>
        <_>
          10 9 6 4 2.</_></rects>
      <tilted>0</tilted></_>
    <_>
      <rects>
        <_>
          4 11 1 6 -1.</_>
        <_>
          4 14 1 3 2.</_></rects>
      <tilted>0</tilted></_>
    <_>
      <rects>
        <_>
          4 13 3 6 -1.</_>
        <_>
          4 16 3 3 2.</_></rects>
      <tilted>0</tilted></_>
    <_>
      <rects>
        <_>
          5 10 9 2 -1.</_>
        <_>
          8 10 3 2 3.</_></rects>
      <tilted>0</tilted></_>
    <_>
      <rects>
        <_>
          5 10 3 9 -1.</_>
        <_>
          5 13 3 3 3.</_></rects>
      <tilted>0</tilted></_>
    <_>
      <rects>
        <_>
          5 13 1 4 -1.</_>
        <_>
          5 15 1 2 2.</_></rects>
      <tilted>0</tilted></_>
    <_>
      <rects>
        <_>
          5 13 2 4 -1.</_>
        <_>
          5 15 2 2 2.</_></rects>
      <tilted>0</tilted></_>
    <_>
      <rects>
        <_>
          7 4 12 10 -1.</_>
        <_>
          11 4 4 10 3.</_></rects>
      <tilted>0</tilted></_>
    <_>
      <rects>
        <_>
          7 18 8 2 -1.</_>
        <_>
          7 19 8 1 2.</_></rects>
      <tilted>0</tilted></_>
    <_>
      <rects>
        <_>
          8 2 7 6 -1.</_>
        <_>
          8 4 7 2 3.</_></rects>
      <tilted>0</tilted></_>
    <_>
      <rects>
        <_>
          8 5 12 9 -1.</_>
        <_>
          12 5 4 9 3.</_></rects>
      <tilted>0</tilted></_>
    <_>
      <rects>
        <_>
          8 6 12 8 -1.</_>
        <_>
          12 6 4 8 3.</_></rects>
      <tilted>0</tilted></_>
    <_>
      <rects>
        <_>
          8 7 12 7 -1.</_>
        <_>
          12 7 4 7 3.</_></rects>
      <tilted>0</tilted></_>
    <_>
      <rects>
        <_>
          8 8 3 6 -1.</_>
        <_>
          8 10 3 2 3.</_></rects>
      <tilted>0</tilted></_>
    <_>
      <rects>
        <_>
          8 13 9 6 -1.</_>
        <_>
          11 13 3 6 3.</_></rects>
      <tilted>0</tilted></_>
    <_>
      <rects>
        <_>
          8 18 4 2 -1.</_>
        <_>
          8 19 4 1 2.</_></rects>
      <tilted>0</tilted></_>
    <_>
      <rects>
        <_>
          9 8 1 6 -1.</_>
        <_>
          9 10 1 2 3.</_></rects>
      <tilted>0</tilted></_>
    <_>
      <rects>
        <_>
          9 8 6 5 -1.</_>
        <_>
          12 8 3 5 2.</_></rects>
      <tilted>0</tilted></_>
    <_>
      <rects>
        <_>
          9 8 6 6 -1.</_>
        <_>
          12 8 3 6 2.</_></rects>
      <tilted>0</tilted></_>
    <_>
      <rects>
        <_>
          10 2 4 2 -1.</_>
        <_>
          10 3 4 1 2.</_></rects>
      <tilted>0</tilted></_>
    <_>
      <rects>
        <_>
          10 10 6 2 -1.</_>
        <_>
          13 10 3 2 2.</_></rects>
      <tilted>0</tilted></_>
    <_>
      <rects>
        <_>
          11 2 3 9 -1.</_>
        <_>
          11 5 3 3 3.</_></rects>
      <tilted>0</tilted></_>
    <_>
      <rects>
        <_>
          11 5 5 6 -1.</_>
        <_>
          11 7 5 2 3.</_></rects>
      <tilted>0</tilted></_>
    <_>
      <rects>
        <_>
          11 10 4 3 -1.</_>
        <_>
          13 10 2 3 2.</_></rects>
      <tilted>0</tilted></_>
    <_>
      <rects>
        <_>
          12 2 1 6 -1.</_>
        <_>
          12 4 1 2 3.</_></rects>
      <tilted>0</tilted></_>
    <_>
      <rects>
        <_>
          12 2 2 4 -1.</_>
        <_>
          12 4 2 2 2.</_></rects>
      <tilted>0</tilted></_>
    <_>
      <rects>
        <_>
          12 2 2 9 -1.</_>
        <_>
          12 5 2 3 3.</_></rects>
      <tilted>0</tilted></_>
    <_>
      <rects>
        <_>
          12 3 4 8 -1.</_>
        <_>
          12 3 2 4 2.</_>
        <_>
          14 7 2 4 2.</_></rects>
      <tilted>0</tilted></_>
    <_>
      <rects>
        <_>
          12 4 8 16 -1.</_>
        <_>
          16 4 4 16 2.</_></rects>
      <tilted>0</tilted></_>
    <_>
      <rects>
        <_>
          12 7 2 1 -1.</_>
        <_>
          13 7 1 1 2.</_></rects>
      <tilted>0</tilted></_>
    <_>
      <rects>
        <_>
          12 10 3 6 -1.</_>
        <_>
          13 10 1 6 3.</_></rects>
      <tilted>0</tilted></_>
    <_>
      <rects>
        <_>
          12 10 6 2 -1.</_>
        <_>
          14 10 2 2 3.</_></rects>
      <tilted>0</tilted></_>
    <_>
      <rects>
        <_>
          13 2 1 4 -1.</_>
        <_>
          13 4 1 2 2.</_></rects>
      <tilted>0</tilted></_>
    <_>
      <rects>
        <_>
          13 2 1 6 -1.</_>
        <_>
          13 4 1 2 3.</_></rects>
      <tilted>0</tilted></_>
    <_>
      <rects>
        <_>
          13 2 2 12 -1.</_>
        <_>
          13 8 2 6 2.</_></rects>
      <tilted>0</tilted></_>
    <_>
      <rects>
        <_>
          13 5 1 2 -1.</_>
        <_>
          13 6 1 1 2.</_></rects>
      <tilted>0</tilted></_>
    <_>
      <rects>
        <_>
          13 5 1 4 -1.</_>
        <_>
          13 7 1 2 2.</_></rects>
      <tilted>0</tilted></_>
    <_>
      <rects>
        <_>
          13 6 1 4 -1.</_>
        <_>
          13 8 1 2 2.</_></rects>
      <tilted>0</tilted></_>
    <_>
      <rects>
        <_>
          13 6 1 6 -1.</_>
        <_>
          13 9 1 3 2.</_></rects>
      <tilted>0</tilted></_>
    <_>
      <rects>
        <_>
          13 7 2 2 -1.</_>
        <_>
          14 7 1 2 2.</_></rects>
      <tilted>0</tilted></_>
    <_>
      <rects>
        <_>
          13 8 2 3 -1.</_>
        <_>
          14 8 1 3 2.</_></rects>
      <tilted>0</tilted></_>
    <_>
      <rects>
        <_>
          13 9 3 1 -1.</_>
        <_>
          14 9 1 1 3.</_></rects>
      <tilted>0</tilted></_>
    <_>
      <rects>
        <_>
          13 10 1 4 -1.</_>
        <_>
          13 12 1 2 2.</_></rects>
      <tilted>0</tilted></_>
    <_>
      <rects>
        <_>
          14 2 2 12 -1.</_>
        <_>
          14 8 2 6 2.</_></rects>
      <tilted>0</tilted></_>
    <_>
      <rects>
        <_>
          14 6 1 8 -1.</_>
        <_>
          14 10 1 4 2.</_></rects>
      <tilted>0</tilted></_>
    <_>
      <rects>
        <_>
          14 7 1 3 -1.</_>
        <_>
          14 8 1 1 3.</_></rects>
      <tilted>0</tilted></_>
    <_>
      <rects>
        <_>
          14 7 1 4 -1.</_>
        <_>
          14 9 1 2 2.</_></rects>
      <tilted>0</tilted></_>
    <_>
      <rects>
        <_>
          14 7 1 6 -1.</_>
        <_>
          14 9 1 2 3.</_></rects>
      <tilted>0</tilted></_>
    <_>
      <rects>
        <_>
          14 7 1 6 -1.</_>
        <_>
          14 10 1 3 2.</_></rects>
      <tilted>0</tilted></_>
    <_>
      <rects>
        <_>
          14 7 6 11 -1.</_>
        <_>
          17 7 3 11 2.</_></rects>
      <tilted>0</tilted></_>
    <_>
      <rects>
        <_>
          14 8 1 4 -1.</_>
        <_>
          14 10 1 2 2.</_></rects>
      <tilted>0</tilted></_>
    <_>
      <rects>
        <_>
          14 8 1 6 -1.</_>
        <_>
          14 11 1 3 2.</_></rects>
      <tilted>0</tilted></_>
    <_>
      <rects>
        <_>
          14 8 3 4 -1.</_>
        <_>
          15 8 1 4 3.</_></rects>
      <tilted>0</tilted></_>
    <_>
      <rects>
        <_>
          14 9 1 4 -1.</_>
        <_>
          14 11 1 2 2.</_></rects>
      <tilted>0</tilted></_></features></cascade>
</opencv_storage>
